<?xml version="1.0"?>
<opencv_storage>
<cascade>
  <stageType>BOOST</stageType>
  <featureType>HAAR</featureType>
  <height>24</height>
  <width>36</width>
  <stageParams>
    <boostType>GAB</boostType>
    <minHitRate>9.9500000476837158e-01</minHitRate>
    <maxFalseAlarm>5.0000000000000000e-01</maxFalseAlarm>
    <weightTrimRate>9.4999998807907104e-01</weightTrimRate>
    <maxDepth>1</maxDepth>
    <maxWeakCount>100</maxWeakCount></stageParams>
  <featureParams>
    <maxCatCount>0</maxCatCount>
    <featSize>1</featSize>
    <mode>BASIC</mode></featureParams>
  <stageNum>15</stageNum>
  <stages>
    <!-- stage 0 -->
    <_>
      <maxWeakCount>4</maxWeakCount>
      <stageThreshold>-4.1062244772911072e-01</stageThreshold>
      <weakClassifiers>
        <_>
          <internalNodes>
            0 -1 26 7.3976457118988037e-02</internalNodes>
          <leafValues>
            -7.1929824352264404e-01 7.6870745420455933e-01</leafValues></_>
        <_>
          <internalNodes>
            0 -1 37 -7.9902652651071548e-03</internalNodes>
          <leafValues>
            7.1212595701217651e-01 -6.0526919364929199e-01</leafValues></_>
        <_>
          <internalNodes>
            0 -1 12 -4.7624660655856133e-03</internalNodes>
          <leafValues>
            4.2911443114280701e-01 -8.0842185020446777e-01</leafValues></_>
        <_>
          <internalNodes>
            0 -1 38 6.8186447024345398e-03</internalNodes>
          <leafValues>
            -6.8547207117080688e-01 4.8483058810234070e-01</leafValues></_></weakClassifiers></_>
    <!-- stage 1 -->
    <_>
      <maxWeakCount>4</maxWeakCount>
      <stageThreshold>-6.0528582334518433e-01</stageThreshold>
      <weakClassifiers>
        <_>
          <internalNodes>
            0 -1 31 -1.0070247575640678e-02</internalNodes>
          <leafValues>
            5.6097561120986938e-01 -6.6233766078948975e-01</leafValues></_>
        <_>
          <internalNodes>
            0 -1 29 -9.8911346867680550e-03</internalNodes>
          <leafValues>
            -9.3431496620178223e-01 3.2402709126472473e-01</leafValues></_>
        <_>
          <internalNodes>
            0 -1 20 -9.5082039479166269e-04</internalNodes>
          <leafValues>
            4.3360322713851929e-01 -6.4075785875320435e-01</leafValues></_>
        <_>
          <internalNodes>
            0 -1 45 -1.7177811241708696e-04</internalNodes>
          <leafValues>
            4.0881136059761047e-01 -6.5208262205123901e-01</leafValues></_></weakClassifiers></_>
    <!-- stage 2 -->
    <_>
      <maxWeakCount>6</maxWeakCount>
      <stageThreshold>-6.4682674407958984e-01</stageThreshold>
      <weakClassifiers>
        <_>
          <internalNodes>
            0 -1 26 7.4547633528709412e-02</internalNodes>
          <leafValues>
            -6.7123287916183472e-01 5.1162791252136230e-01</leafValues></_>
        <_>
          <internalNodes>
            0 -1 22 -6.6920951940119267e-04</internalNodes>
          <leafValues>
            4.7473919391632080e-01 -6.6665530204772949e-01</leafValues></_>
        <_>
          <internalNodes>
            0 -1 1 -1.1485246941447258e-02</internalNodes>
          <leafValues>
            3.8056442141532898e-01 -7.1412783861160278e-01</leafValues></_>
        <_>
          <internalNodes>
            0 -1 35 6.7992587573826313e-03</internalNodes>
          <leafValues>
            2.7655574679374695e-01 -9.5212244987487793e-01</leafValues></_>
        <_>
          <internalNodes>
            0 -1 40 -2.4460657732561231e-04</internalNodes>
          <leafValues>
            4.4781231880187988e-01 -5.8901983499526978e-01</leafValues></_>
        <_>
          <internalNodes>
            0 -1 34 -6.7032617516815662e-04</internalNodes>
          <leafValues>
            7.4503290653228760e-01 -4.6057328581809998e-01</leafValues></_></weakClassifiers></_>
    <!-- stage 3 -->
    <_>
      <maxWeakCount>5</maxWeakCount>
      <stageThreshold>-7.7637249231338501e-01</stageThreshold>
      <weakClassifiers>
        <_>
          <internalNodes>
            0 -1 0 3.7244036793708801e-02</internalNodes>
          <leafValues>
            -5.6626504659652710e-01 5.5263155698776245e-01</leafValues></_>
        <_>
          <internalNodes>
            0 -1 17 7.8210420906543732e-04</internalNodes>
          <leafValues>
            3.2472592592239380e-01 -9.3368071317672729e-01</leafValues></_>
        <_>
          <internalNodes>
            0 -1 41 -1.1821927037090063e-03</internalNodes>
          <leafValues>
            4.7208032011985779e-01 -5.4588973522186279e-01</leafValues></_>
        <_>
          <internalNodes>
            0 -1 15 4.7022459330037236e-04</internalNodes>
          <leafValues>
            -5.9391069412231445e-01 5.0163030624389648e-01</leafValues></_>
        <_>
          <internalNodes>
            0 -1 28 6.7885487806051970e-04</internalNodes>
          <leafValues>
            -4.1300296783447266e-01 6.9459766149520874e-01</leafValues></_></weakClassifiers></_>
    <!-- stage 4 -->
    <_>
      <maxWeakCount>3</maxWeakCount>
      <stageThreshold>-1.9525313377380371e-01</stageThreshold>
      <weakClassifiers>
        <_>
          <internalNodes>
            0 -1 32 -2.9059289954602718e-03</internalNodes>
          <leafValues>
            9.2941176891326904e-01 -3.8197425007820129e-01</leafValues></_>
        <_>
          <internalNodes>
            0 -1 14 -1.2044481001794338e-02</internalNodes>
          <leafValues>
            6.8118035793304443e-01 -4.5236060023307800e-01</leafValues></_>
        <_>
          <internalNodes>
            0 -1 46 -9.0263306628912687e-04</internalNodes>
          <leafValues>
            8.0890399217605591e-01 -4.9445921182632446e-01</leafValues></_></weakClassifiers></_>
    <!-- stage 5 -->
    <_>
      <maxWeakCount>2</maxWeakCount>
      <stageThreshold>2.0110078155994415e-02</stageThreshold>
      <weakClassifiers>
        <_>
          <internalNodes>
            0 -1 30 2.0384299755096436e-01</internalNodes>
          <leafValues>
            -4.9532711505889893e-01 9.2307692766189575e-01</leafValues></_>
        <_>
          <internalNodes>
            0 -1 19 5.2161635830998421e-03</internalNodes>
          <leafValues>
            5.1543718576431274e-01 -8.8929015398025513e-01</leafValues></_></weakClassifiers></_>
    <!-- stage 6 -->
    <_>
      <maxWeakCount>3</maxWeakCount>
      <stageThreshold>-9.6603941917419434e-01</stageThreshold>
      <weakClassifiers>
        <_>
          <internalNodes>
            0 -1 4 1.6450978815555573e-02</internalNodes>
          <leafValues>
            -7.5510203838348389e-01 5.9064328670501709e-01</leafValues></_>
        <_>
          <internalNodes>
            0 -1 33 5.3423480130732059e-04</internalNodes>
          <leafValues>
            5.1112890243530273e-01 -8.0104476213455200e-01</leafValues></_>
        <_>
          <internalNodes>
            0 -1 7 -1.5575053403154016e-03</internalNodes>
          <leafValues>
            -7.5563794374465942e-01 5.5111217498779297e-01</leafValues></_></weakClassifiers></_>
    <!-- stage 7 -->
    <_>
      <maxWeakCount>3</maxWeakCount>
      <stageThreshold>-4.1462492942810059e-01</stageThreshold>
      <weakClassifiers>
        <_>
          <internalNodes>
            0 -1 18 -6.0697505250573158e-03</internalNodes>
          <leafValues>
            5.8536583185195923e-01 -6.8831169605255127e-01</leafValues></_>
        <_>
          <internalNodes>
            0 -1 9 4.0352717041969299e-03</internalNodes>
          <leafValues>
            -5.6141620874404907e-01 7.4235433340072632e-01</leafValues></_>
        <_>
          <internalNodes>
            0 -1 3 2.6183654554188251e-03</internalNodes>
          <leafValues>
            -4.3857458233833313e-01 8.5065948963165283e-01</leafValues></_></weakClassifiers></_>
    <!-- stage 8 -->
    <_>
      <maxWeakCount>4</maxWeakCount>
      <stageThreshold>-3.0603030323982239e-01</stageThreshold>
      <weakClassifiers>
        <_>
          <internalNodes>
            0 -1 44 4.6856061089783907e-04</internalNodes>
          <leafValues>
            6.4285713434219360e-01 -7.8666669130325317e-01</leafValues></_>
        <_>
          <internalNodes>
            0 -1 5 -5.7089561596512794e-03</internalNodes>
          <leafValues>
            4.4898298382759094e-01 -9.7323298454284668e-01</leafValues></_>
        <_>
          <internalNodes>
            0 -1 23 -3.5982527770102024e-03</internalNodes>
          <leafValues>
            8.4481823444366455e-01 -5.6192833185195923e-01</leafValues></_>
        <_>
          <internalNodes>
            0 -1 48 5.7508028112351894e-04</internalNodes>
          <leafValues>
            6.0364180803298950e-01 -8.3594208955764771e-01</leafValues></_></weakClassifiers></_>
    <!-- stage 9 -->
    <_>
      <maxWeakCount>3</maxWeakCount>
      <stageThreshold>-2.0440058410167694e-01</stageThreshold>
      <weakClassifiers>
        <_>
          <internalNodes>
            0 -1 2 -1.8083830364048481e-03</internalNodes>
          <leafValues>
            1. -4.0170940756797791e-01</leafValues></_>
        <_>
          <internalNodes>
            0 -1 16 4.7726358752697706e-04</internalNodes>
          <leafValues>
            7.4915170669555664e-01 -5.3995150327682495e-01</leafValues></_>
        <_>
          <internalNodes>
            0 -1 11 1.7020124942064285e-02</internalNodes>
          <leafValues>
            -5.5184292793273926e-01 9.1021603345870972e-01</leafValues></_></weakClassifiers></_>
    <!-- stage 10 -->
    <_>
      <maxWeakCount>4</maxWeakCount>
      <stageThreshold>-2.9401436448097229e-01</stageThreshold>
      <weakClassifiers>
        <_>
          <internalNodes>
            0 -1 13 9.9963050161022693e-05</internalNodes>
          <leafValues>
            5.9036141633987427e-01 -7.1052628755569458e-01</leafValues></_>
        <_>
          <internalNodes>
            0 -1 47 4.5375304762274027e-04</internalNodes>
          <leafValues>
            6.4896595478057861e-01 -7.6027286052703857e-01</leafValues></_>
        <_>
          <internalNodes>
            0 -1 27 3.8014268502593040e-03</internalNodes>
          <leafValues>
            5.1887893676757813e-01 -8.7243837118148804e-01</leafValues></_>
        <_>
          <internalNodes>
            0 -1 8 -1.0337468702346087e-03</internalNodes>
          <leafValues>
            -8.6820536851882935e-01 6.5790587663650513e-01</leafValues></_></weakClassifiers></_>
    <!-- stage 11 -->
    <_>
      <maxWeakCount>1</maxWeakCount>
      <stageThreshold>3.1623932719230652e-01</stageThreshold>
      <weakClassifiers>
        <_>
          <internalNodes>
            0 -1 6 4.4612968340516090e-03</internalNodes>
          <leafValues>
            3.1623932719230652e-01 -1.</leafValues></_></weakClassifiers></_>
    <!-- stage 12 -->
    <_>
      <maxWeakCount>4</maxWeakCount>
      <stageThreshold>-2.1261461079120636e-01</stageThreshold>
      <weakClassifiers>
        <_>
          <internalNodes>
            0 -1 39 -1.5533310943283141e-04</internalNodes>
          <leafValues>
            5.4545456171035767e-01 -7.4647885560989380e-01</leafValues></_>
        <_>
          <internalNodes>
            0 -1 42 2.5534061715006828e-03</internalNodes>
          <leafValues>
            -4.8467639088630676e-01 8.3689671754837036e-01</leafValues></_>
        <_>
          <internalNodes>
            0 -1 21 3.3219181932508945e-03</internalNodes>
          <leafValues>
            4.9704813957214355e-01 -7.9355442523956299e-01</leafValues></_>
        <_>
          <internalNodes>
            0 -1 36 8.1781968474388123e-03</internalNodes>
          <leafValues>
            6.3426673412322998e-01 -7.7044093608856201e-01</leafValues></_></weakClassifiers></_>
    <!-- stage 13 -->
    <_>
      <maxWeakCount>1</maxWeakCount>
      <stageThreshold>3.5087719559669495e-01</stageThreshold>
      <weakClassifiers>
        <_>
          <internalNodes>
            0 -1 24 -2.0066832657903433e-03</internalNodes>
          <leafValues>
            3.5087719559669495e-01 -1.</leafValues></_></weakClassifiers></_>
    <!-- stage 14 -->
    <_>
      <maxWeakCount>3</maxWeakCount>
      <stageThreshold>-8.4099292755126953e-01</stageThreshold>
      <weakClassifiers>
        <_>
          <internalNodes>
            0 -1 10 -2.8462396585382521e-05</internalNodes>
          <leafValues>
            -6.7901235818862915e-01 6.4102566242218018e-01</leafValues></_>
        <_>
          <internalNodes>
            0 -1 25 4.2753026355057955e-04</internalNodes>
          <leafValues>
            4.9931043386459351e-01 -8.6095154285430908e-01</leafValues></_>
        <_>
          <internalNodes>
            0 -1 43 2.8171862140879966e-05</internalNodes>
          <leafValues>
            -6.6129106283187866e-01 6.4026504755020142e-01</leafValues></_></weakClassifiers></_></stages>
  <features>
    <_>
      <rects>
        <_>
          0 14 23 8 -1.</_>
        <_>
          0 18 23 4 2.</_></rects>
      <tilted>0</tilted></_>
    <_>
      <rects>
        <_>
          0 18 26 3 -1.</_>
        <_>
          13 18 13 3 2.</_></rects>
      <tilted>0</tilted></_>
    <_>
      <rects>
        <_>
          1 10 4 4 -1.</_>
        <_>
          1 10 2 2 2.</_>
        <_>
          3 12 2 2 2.</_></rects>
      <tilted>0</tilted></_>
    <_>
      <rects>
        <_>
          1 15 16 3 -1.</_>
        <_>
          1 16 16 1 3.</_></rects>
      <tilted>0</tilted></_>
    <_>
      <rects>
        <_>
          1 15 21 8 -1.</_>
        <_>
          1 19 21 4 2.</_></rects>
      <tilted>0</tilted></_>
    <_>
      <rects>
        <_>
          2 4 34 13 -1.</_>
        <_>
          19 4 17 13 2.</_></rects>
      <tilted>0</tilted></_>
    <_>
      <rects>
        <_>
          2 5 4 11 -1.</_>
        <_>
          4 5 2 11 2.</_></rects>
      <tilted>0</tilted></_>
    <_>
      <rects>
        <_>
          4 1 15 4 -1.</_>
        <_>
          4 3 15 2 2.</_></rects>
      <tilted>0</tilted></_>
    <_>
      <rects>
        <_>
          4 9 2 12 -1.</_>
        <_>
          5 9 1 12 2.</_></rects>
      <tilted>0</tilted></_>
    <_>
      <rects>
        <_>
          6 5 8 8 -1.</_>
        <_>
          6 5 4 4 2.</_>
        <_>
          10 9 4 4 2.</_></rects>
      <tilted>0</tilted></_>
    <_>
      <rects>
        <_>
          6 7 10 16 -1.</_>
        <_>
          6 7 5 8 2.</_>
        <_>
          11 15 5 8 2.</_></rects>
      <tilted>0</tilted></_>
    <_>
      <rects>
        <_>
          6 15 23 9 -1.</_>
        <_>
          6 18 23 3 3.</_></rects>
      <tilted>0</tilted></_>
    <_>
      <rects>
        <_>
          7 5 27 13 -1.</_>
        <_>
          16 5 9 13 3.</_></rects>
      <tilted>0</tilted></_>
    <_>
      <rects>
        <_>
          7 7 6 6 -1.</_>
        <_>
          7 9 6 2 3.</_></rects>
      <tilted>0</tilted></_>
    <_>
      <rects>
        <_>
          7 18 18 5 -1.</_>
        <_>
          13 18 6 5 3.</_></rects>
      <tilted>0</tilted></_>
    <_>
      <rects>
        <_>
          7 19 3 3 -1.</_>
        <_>
          7 20 3 1 3.</_></rects>
      <tilted>0</tilted></_>
    <_>
      <rects>
        <_>
          8 1 1 6 -1.</_>
        <_>
          8 3 1 2 3.</_></rects>
      <tilted>0</tilted></_>
    <_>
      <rects>
        <_>
          8 2 9 1 -1.</_>
        <_>
          11 2 3 1 3.</_></rects>
      <tilted>0</tilted></_>
    <_>
      <rects>
        <_>
          8 4 15 10 -1.</_>
        <_>
          13 4 5 10 3.</_></rects>
      <tilted>0</tilted></_>
    <_>
      <rects>
        <_>
          8 11 6 10 -1.</_>
        <_>
          10 11 2 10 3.</_></rects>
      <tilted>0</tilted></_>
    <_>
      <rects>
        <_>
          11 13 16 3 -1.</_>
        <_>
          11 14 16 1 3.</_></rects>
      <tilted>0</tilted></_>
    <_>
      <rects>
        <_>
          12 4 12 6 -1.</_>
        <_>
          16 4 4 6 3.</_></rects>
      <tilted>0</tilted></_>
    <_>
      <rects>
        <_>
          12 6 4 9 -1.</_>
        <_>
          12 9 4 3 3.</_></rects>
      <tilted>0</tilted></_>
    <_>
      <rects>
        <_>
          12 10 4 8 -1.</_>
        <_>
          14 10 2 8 2.</_></rects>
      <tilted>0</tilted></_>
    <_>
      <rects>
        <_>
          12 11 20 4 -1.</_>
        <_>
          22 11 10 4 2.</_></rects>
      <tilted>0</tilted></_>
    <_>
      <rects>
        <_>
          13 0 2 2 -1.</_>
        <_>
          14 0 1 2 2.</_></rects>
      <tilted>0</tilted></_>
    <_>
      <rects>
        <_>
          13 6 21 12 -1.</_>
        <_>
          13 12 21 6 2.</_></rects>
      <tilted>0</tilted></_>
    <_>
      <rects>
        <_>
          13 7 12 5 -1.</_>
        <_>
          19 7 6 5 2.</_></rects>
      <tilted>0</tilted></_>
    <_>
      <rects>
        <_>
          13 14 3 1 -1.</_>
        <_>
          14 14 1 1 3.</_></rects>
      <tilted>0</tilted></_>
    <_>
      <rects>
        <_>
          14 4 7 18 -1.</_>
        <_>
          14 10 7 6 3.</_></rects>
      <tilted>0</tilted></_>
    <_>
      <rects>
        <_>
          15 2 20 22 -1.</_>
        <_>
          15 13 20 11 2.</_></rects>
      <tilted>0</tilted></_>
    <_>
      <rects>
        <_>
          15 11 8 9 -1.</_>
        <_>
          15 14 8 3 3.</_></rects>
      <tilted>0</tilted></_>
    <_>
      <rects>
        <_>
          16 5 4 3 -1.</_>
        <_>
          16 6 4 1 3.</_></rects>
      <tilted>0</tilted></_>
    <_>
      <rects>
        <_>
          17 13 9 2 -1.</_>
        <_>
          17 14 9 1 2.</_></rects>
      <tilted>0</tilted></_>
    <_>
      <rects>
        <_>
          18 0 1 3 -1.</_>
        <_>
          18 1 1 1 3.</_></rects>
      <tilted>0</tilted></_>
    <_>
      <rects>
        <_>
          18 7 12 3 -1.</_>
        <_>
          22 7 4 3 3.</_></rects>
      <tilted>0</tilted></_>
    <_>
      <rects>
        <_>
          19 9 5 10 -1.</_>
        <_>
          19 14 5 5 2.</_></rects>
      <tilted>0</tilted></_>
    <_>
      <rects>
        <_>
          19 11 15 2 -1.</_>
        <_>
          24 11 5 2 3.</_></rects>
      <tilted>0</tilted></_>
    <_>
      <rects>
        <_>
          21 2 13 9 -1.</_>
        <_>
          21 5 13 3 3.</_></rects>
      <tilted>0</tilted></_>
    <_>
      <rects>
        <_>
          21 4 10 1 -1.</_>
        <_>
          26 4 5 1 2.</_></rects>
      <tilted>0</tilted></_>
    <_>
      <rects>
        <_>
          22 9 4 6 -1.</_>
        <_>
          22 11 4 2 3.</_></rects>
      <tilted>0</tilted></_>
    <_>
      <rects>
        <_>
          25 7 3 17 -1.</_>
        <_>
          26 7 1 17 3.</_></rects>
      <tilted>0</tilted></_>
    <_>
      <rects>
        <_>
          25 14 8 3 -1.</_>
        <_>
          25 15 8 1 3.</_></rects>
      <tilted>0</tilted></_>
    <_>
      <rects>
        <_>
          25 18 4 1 -1.</_>
        <_>
          27 18 2 1 2.</_></rects>
      <tilted>0</tilted></_>
    <_>
      <rects>
        <_>
          27 6 8 1 -1.</_>
        <_>
          31 6 4 1 2.</_></rects>
      <tilted>0</tilted></_>
    <_>
      <rects>
        <_>
          29 7 6 2 -1.</_>
        <_>
          31 7 2 2 3.</_></rects>
      <tilted>0</tilted></_>
    <_>
      <rects>
        <_>
          31 15 3 3 -1.</_>
        <_>
          31 16 3 1 3.</_></rects>
      <tilted>0</tilted></_>
    <_>
      <rects>
        <_>
          33 1 3 8 -1.</_>
        <_>
          34 1 1 8 3.</_></rects>
      <tilted>0</tilted></_>
    <_>
      <rects>
        <_>
          35 15 1 9 -1.</_>
        <_>
          35 18 1 3 3.</_></rects>
      <tilted>0</tilted></_></features></cascade>
</opencv_storage>
